digraph Tree {
node [shape=box, style="filled, rounded", color="black", fontname=helvetica] ;
edge [fontname=helvetica] ;
0 [label="X[1] <= 0.306\ngini = 0.5\nsamples = 200\nvalue = [100, 100]", fillcolor="#ffffff"] ;
1 [label="X[0] <= -0.544\ngini = 0.288\nsamples = 109\nvalue = [19, 90]", fillcolor="#63b2ea"] ;
0 -> 1 [labeldistance=2.5, labelangle=45, headlabel="True"] ;
2 [label="gini = 0.0\nsamples = 9\nvalue = [9, 0]", fillcolor="#e58139"] ;
1 -> 2 ;
3 [label="X[1] <= -0.063\ngini = 0.18\nsamples = 100\nvalue = [10, 90]", fillcolor="#4fa8e8"] ;
1 -> 3 ;
4 [label="gini = 0.0\nsamples = 61\nvalue = [0, 61]", fillcolor="#399de5"] ;
3 -> 4 ;
5 [label="X[0] <= 0.618\ngini = 0.381\nsamples = 39\nvalue = [10, 29]", fillcolor="#7dbfee"] ;
3 -> 5 ;
6 [label="gini = 0.0\nsamples = 16\nvalue = [0, 16]", fillcolor="#399de5"] ;
5 -> 6 ;
7 [label="X[0] <= 1.429\ngini = 0.491\nsamples = 23\nvalue = [10, 13]", fillcolor="#d1e8f9"] ;
5 -> 7 ;
8 [label="gini = 0.0\nsamples = 10\nvalue = [10, 0]", fillcolor="#e58139"] ;
7 -> 8 ;
9 [label="gini = 0.0\nsamples = 13\nvalue = [0, 13]", fillcolor="#399de5"] ;
7 -> 9 ;
10 [label="X[0] <= 1.421\ngini = 0.196\nsamples = 91\nvalue = [81, 10]", fillcolor="#e89151"] ;
0 -> 10 [labeldistance=2.5, labelangle=-45, headlabel="False"] ;
11 [label="X[1] <= 0.48\ngini = 0.11\nsamples = 86\nvalue = [81, 5]", fillcolor="#e78945"] ;
10 -> 11 ;
12 [label="X[0] <= -0.363\ngini = 0.36\nsamples = 17\nvalue = [13, 4]", fillcolor="#eda876"] ;
11 -> 12 ;
13 [label="gini = 0.0\nsamples = 7\nvalue = [7, 0]", fillcolor="#e58139"] ;
12 -> 13 ;
14 [label="X[0] <= 0.465\ngini = 0.48\nsamples = 10\nvalue = [6, 4]", fillcolor="#f6d5bd"] ;
12 -> 14 ;
15 [label="gini = 0.0\nsamples = 4\nvalue = [0, 4]", fillcolor="#399de5"] ;
14 -> 15 ;
16 [label="gini = 0.0\nsamples = 6\nvalue = [6, 0]", fillcolor="#e58139"] ;
14 -> 16 ;
17 [label="X[1] <= 0.735\ngini = 0.029\nsamples = 69\nvalue = [68, 1]", fillcolor="#e5833c"] ;
11 -> 17 ;
18 [label="X[1] <= 0.7\ngini = 0.087\nsamples = 22\nvalue = [21, 1]", fillcolor="#e68742"] ;
17 -> 18 ;
19 [label="gini = 0.0\nsamples = 18\nvalue = [18, 0]", fillcolor="#e58139"] ;
18 -> 19 ;
20 [label="gini = 0.375\nsamples = 4\nvalue = [3, 1]", fillcolor="#eeab7b"] ;
18 -> 20 ;
21 [label="gini = 0.0\nsamples = 47\nvalue = [47, 0]", fillcolor="#e58139"] ;
17 -> 21 ;
22 [label="gini = 0.0\nsamples = 5\nvalue = [0, 5]", fillcolor="#399de5"] ;
10 -> 22 ;
}